SVM-light Version V6.02
0 # kernel type
3 # kernel parameter -d 
1 # kernel parameter -g 
1 # kernel parameter -s 
1 # kernel parameter -r 
empty# kernel parameter -u 
30 # highest feature index 
775 # number of training documents 
32 # number of support vectors plus 1 
-11.231308 # threshold b, each following line is a SV (starting with alpha*y)
83.886552879592443332512630149722 1:1.29206 2:0 3:0 4:0.64603001 5:0 6:0.64603001 7:0 8:0 9:0 10:0 11:0.64603001 12:0.64603001 13:0 14:0 15:0 16:1.29206 17:0 18:0 19:0 20:0.64603001 21:0.088799998 22:0.02163 23:0.089759998 24:0.01609 25:0.074680001 26:0.033500001 27:0.029519999 28:0.33333001 29:0.44444001 30:0.22222 #*MaRAP2-4
464.45507364538320871361065655947 1:0 2:0.53539997 3:0 4:0.53539997 5:0 6:1.60621 7:0 8:0 9:0 10:0.53539997 11:0 12:0 13:0 14:0.53539997 15:0 16:0.53539997 17:0 18:0 19:0 20:0.53539997 21:0.087540001 22:0.08698 23:0.016559999 24:0.061930001 25:0.11126 26:0.029850001 27:0.070479997 28:0.55555999 29:0.11111 30:0.33333001 #*STAT1-TAD1
179.1794479224538463313365355134 1:0 2:0 3:0 4:1.81542 5:0 6:0 7:0 8:0 9:0 10:0.60513997 11:2.4205501 12:0 13:0 14:0.60513997 15:0 16:0 17:0 18:0 19:0 20:0 21:0.07344 22:0.051970001 23:0.059859999 24:0.069870003 25:0.03059 26:0.048500001 27:0.060619999 28:0.33333001 29:0 30:0.66667002 #*KLF4
83.167092802145447194561711512506 1:1.32538 2:0 3:0.66268998 4:0 5:0 6:0.66268998 7:0 8:0 9:0 10:0 11:1.32538 12:0 13:0 14:0 15:0 16:0.66268998 17:0.66268998 18:0 19:0.66268998 20:0 21:0.056230001 22:0.039749999 23:0.038240001 24:0.036850002 25:0.070979998 26:0.036290001 27:0.058970001 28:0.22222 29:0.55555999 30:0.22222 #*AURKA
-9.2375563788352792471414431929588 1:0 2:1.02942 3:0 4:0 5:0.51471001 6:0.51471001 7:1.02942 8:0.51471001 9:0 10:0 11:1.02942 12:0 13:0 14:0 15:0 16:0 17:0 18:0 19:0 20:0 21:0.077869996 22:0.10901 23:0.059590001 24:0.0083999997 25:0.08664 26:0.10319 27:0.040589999 28:0.55555999 29:0.11111 30:0.33333001 #18_ERT1_DEBHA|31-60
-189.125568294028937543771462515 1:0 2:0 3:0.75243002 4:0 5:0 6:0 7:0 8:0 9:0 10:0 11:2.2572801 12:0 13:0.75243002 14:0 15:0 16:1.50485 17:0 18:0 19:0.75243002 20:0.75243002 21:0.032600001 22:0.048939999 23:0.044319998 24:0.02131 25:0.029929999 26:0.046270002 27:0.0242 28:0.11111 29:0.33333001 30:0.55555999 #297_oaf1
-500 1:0 2:0 3:0.69520003 4:1.3904001 5:0 6:0 7:0 8:0 9:0 10:0 11:2.7808101 12:0 13:0 14:0 15:0 16:0.69520003 17:0.69520003 18:0 19:0 20:0 21:0.053939998 22:0.056230001 23:0.039730001 24:0.056510001 25:0.067120001 26:0.0196 27:0.01166 28:0.33333001 29:0.22222 30:0.44444001 #603_oaf1
-500 1:0 2:0 3:0 4:0 5:0 6:2.45754 7:0 8:0 9:0 10:0.61438 11:1.22877 12:0 13:0 14:0.61438 15:0 16:0.61438 17:0 18:0 19:0 20:0 21:0.069519997 22:0.076049998 23:0.073310003 24:0.059590001 25:0.037610002 26:0.047290001 27:0.02225 28:0.44444001 29:0.11111 30:0.44444001 #360_oaf1
-318.75812478841487518366193398833 1:0 2:0 3:0 4:2.6830001 5:0 6:0 7:0.67075002 8:0 9:0 10:0 11:0.67075002 12:0.67075002 13:0.67075002 14:0 15:0 16:0.67075002 17:0 18:0 19:0 20:0 21:0.05807 22:0.046300001 23:0.03754 24:0.056150001 25:0.026240001 26:0.046560001 27:0.058389999 28:0.66667002 29:0.11111 30:0.22222 #648_oaf1
105.92378157191097898248699493706 1:0.60984999 2:0 3:0 4:0.60984999 5:0 6:0.60984999 7:0.60984999 8:0 9:0.60984999 10:0 11:1.21971 12:0 13:0 14:1.21971 15:0 16:0 17:0 18:0 19:0 20:0 21:0.056299999 22:0.07948 23:0.062899999 24:0.02729 25:0.054650001 26:0.078380004 27:0.03114 28:0.33333001 29:0.22222 30:0.44444001 #*CEBPA(NF-IL6)
-347.0593535744081918892334215343 1:0 2:0 3:0.61936998 4:0.61936998 5:0 6:0 7:0 8:0 9:0 10:0 11:0.61936998 12:0.61936998 13:0 14:0.61936998 15:0 16:0.61936998 17:1.23874 18:0 19:0 20:0.61936998 21:0.037700001 22:0.050080001 23:0.03579 24:0.05333 25:0.07299 26:0.079570003 27:0.051180001 28:0.33333001 29:0.33333001 30:0.33333001 #225_oaf1
500 1:0 2:0.53994 3:0.53994 4:0.53994 5:0 6:0 7:0 8:0 9:0 10:0.53994 11:1.07989 12:0.53994 13:0 14:0 15:0 16:1.07989 17:0 18:0 19:0 20:0 21:0.043650001 22:0.086070001 23:0.062930003 24:0.023390001 25:0.059950002 26:0.097970001 27:0.086110003 28:0.44444001 29:0.22222 30:0.33333001 #*CREB
237.31699504461363403606810607016 1:0.62277001 2:0 3:0.62277001 4:0.62277001 5:0 6:0.62277001 7:0 8:0 9:0 10:0.62277001 11:0.62277001 12:0 13:0.62277001 14:1.24554 15:0 16:0 17:0 18:0 19:0 20:0 21:0.060800001 22:0.059390001 23:0.073420003 24:0.055509999 25:0.01384 26:0.064989999 27:0.049290001 28:0.33333001 29:0.11111 30:0.55555999 #*LEU3
254.85506124014227680163457989693 1:0 2:0 3:0.61094999 4:0.61094999 5:0 6:0 7:0 8:0 9:0.61094999 10:0 11:1.2219 12:0 13:0 14:0 15:0 16:0 17:1.2219 18:0.61094999 19:0.61094999 20:0 21:0.054469999 22:0.061299998 23:0.03822 24:0.01644 25:0.058090001 26:0.091590002 27:0.068939999 28:0.22222 29:0.44444001 30:0.33333001 #*PDR3
500 1:0 2:0 3:0 4:0.65695 5:0 6:0.65695 7:0 8:0 9:0 10:0 11:1.31391 12:0 13:0 14:0.65695 15:0 16:0.65695 17:1.31391 18:0 19:0 20:0.65695 21:0.061999999 22:0.04005 23:0.041730002 24:0.062650003 25:0.02973 26:0.050889999 27:0.05601 28:0.22222 29:0.33333001 30:0.44444001 #*RTG3-TAD1
-140.16469802257086030294885858893 1:0.50369 2:0 3:0 4:1.00738 5:0 6:0 7:0 8:0 9:0 10:0 11:0 12:1.00738 13:0.50369 14:0.50369 15:0 16:0 17:0 18:0.50369 19:0.50369 20:0 21:0.047680002 22:0.070479997 23:0.10886 24:0.12455 25:0.074670002 26:0.05015 27:0.019920001 28:0.44444001 29:0.22222 30:0.33333001 #117_oaf1
177.55525787556180716819653753191 1:0 2:0 3:0 4:0.65306002 5:0 6:1.30612 7:0 8:0 9:0 10:0 11:1.30612 12:0 13:0.65306002 14:0.65306002 15:0 16:0.65306002 17:0.65306002 18:0 19:0 20:0 21:0.074869998 22:0.02825 23:0.088160001 24:0.050159998 25:0.043710001 26:0.04211 27:0.019680001 28:0.33333001 29:0.22222 30:0.44444001 #*STAT3-TAD2
321.03980791988510645751375705004 1:0.64693999 2:0 3:0 4:0.64693999 5:0 6:0 7:0.64693999 8:0.64693999 9:0 10:0.64693999 11:0.64693999 12:0 13:0.64693999 14:0.64693999 15:0 16:0 17:0.64693999 18:0 19:0 20:0 21:0.045949999 22:0.054480001 23:0.055300001 24:0.04851 25:0.055830002 26:0.047510002 27:0.045480002 28:0.22222 29:0.33333001 30:0.44444001 #*HHV1F(VP16)
-360.88809982705174661532510071993 1:0.62874001 2:0 3:0 4:1.25748 5:0 6:0 7:0 8:0 9:0.62874001 10:0 11:0.62874001 12:0 13:0 14:0.62874001 15:0 16:1.25748 17:0.62874001 18:0 19:0 20:0 21:0.04298 22:0.044 23:0.037829999 24:0.04727 25:0.02864 26:0.076559998 27:0.093979999 28:0.22222 29:0.55555999 30:0.22222 #414_oaf1
-500 1:0.50143999 2:0.50143999 3:0 4:0.50143999 5:0 6:0.50143999 7:0 8:0 9:0 10:1.00289 11:0.50143999 12:0.50143999 13:0 14:0 15:0 16:0.50143999 17:0 18:0 19:0 20:0 21:0.064790003 22:0.078769997 23:0.061799999 24:0.071999997 25:0.072059996 26:0.098310001 27:0.050829999 28:0.44444001 29:0.22222 30:0.33333001 #108_oaf1
-158.37702675494514892307051923126 1:0.60970002 2:0 3:0 4:0 5:0 6:0 7:0 8:0 9:0 10:0.60970002 11:0 12:0 13:0 14:1.8291 15:0.60970002 16:1.2194 17:0 18:0.60970002 19:0 20:0 21:0.069799997 22:0.042679999 23:0.023639999 24:0.082160003 25:0.02723 26:0.05903 27:0.085770003 28:0 29:0.44444001 30:0.55555999 #468_oaf1
-185.93688104132297667092643678188 1:2.3520401 2:0 3:0.78400999 4:0 5:0 6:0 7:0 8:0 9:0 10:0.78400999 11:0.78400999 12:0 13:0.78400999 14:0 15:0.78400999 16:0 17:0.78400999 18:0 19:0 20:0 21:0.031970002 22:0.02248 23:0.0229 24:0.030029999 25:0.01928 26:0.049389999 27:0.03994 28:0.11111 29:0.55555999 30:0.33333001 #234_oaf1
337.18990670994946867722319439054 1:0.70649999 2:0 3:0 4:0.70649999 5:0 6:0 7:0 8:0 9:0 10:0 11:2.1194999 12:0 13:0 14:0.70649999 15:0.70649999 16:1.413 17:0 18:0 19:0 20:0 21:0.051229998 22:0.067960002 23:0.036649998 24:0.03562 25:0.050560001 26:0.044780001 27:0.0066999998 28:0.11111 29:0.44444001 30:0.44444001 #*HSF1
-268.55282238634862324033747427166 1:0 2:0 3:0 4:0 5:0 6:0 7:0 8:0.76608002 9:0 10:0.76608002 11:1.53215 12:0 13:1.53215 14:0 15:0 16:1.53215 17:0.76608002 18:0 19:0 20:0 21:0.03112 22:0.01942 23:0.04163 24:0.022700001 25:0.041250002 26:0.032120001 27:0.04569 28:0 29:0.44444001 30:0.55555999 #495_oaf1
368.72257260350033902795985341072 1:0 2:0 3:0.75032997 4:0.75032997 5:0 6:0 7:0 8:0 9:0 10:0.75032997 11:0 12:0 13:1.5006599 14:0 15:0 16:2.2509899 17:0.75032997 18:0 19:0 20:0 21:0.039129999 22:0.046220001 23:0.050269999 24:0.019859999 25:0.02784 26:0.04171 27:0.02465 28:0.22222 29:0.44444001 30:0.33333001 #*RTG3-TAD2
-100.75352074483171804786252323538 1:1.0683399 2:0.53416997 3:0 4:0 5:0 6:0 7:0.53416997 8:0 9:0 10:0 11:1.0683399 12:0.53416997 13:0 14:0.53416997 15:0 16:0 17:0.53416997 18:0 19:0 20:0 21:0.069339998 22:0.071610004 23:0.07598 24:0.083250001 25:0.08275 26:0.069990002 27:0.0129 28:0.33333001 29:0.33333001 30:0.33333001 #594_oaf1
-413.11699294679220884063397534192 1:0 2:0 3:0.56761998 4:0 5:0 6:1.70286 7:0 8:0 9:0 10:1.13524 11:0 12:0 13:0 14:1.13524 15:0 16:0 17:0 18:0 19:0 20:0.56761998 21:0.056129999 22:0.069810003 23:0.084660001 24:0.041790001 25:0.041650001 26:0.048829999 27:0.089500003 28:0.44444001 29:0 30:0.55555999 #630_oaf1
-394.85642118692067015217617154121 1:0.54342997 2:0.54342997 3:0 4:0 5:0 6:0 7:0 8:0 9:0 10:0 11:1.08687 12:0 13:0.54342997 14:0.54342997 15:0 16:0.54342997 17:0.54342997 18:0 19:0 20:0.54342997 21:0.0557 22:0.035700001 23:0.042339999 24:0.060090002 25:0.078419998 26:0.077069998 27:0.10724 28:0.11111 29:0.33333001 30:0.55555999 #684_oaf1
26.817235895074162499440717510879 1:0 2:0 3:0 4:0 5:0 6:0.99954998 7:0 8:0 9:0 10:0.99954998 11:0.99954998 12:0.49978 13:0 14:0 15:0 16:0.49978 17:0 18:0.49978 19:0 20:0 21:0.05759 22:0.068269998 23:0.050319999 24:0.038789999 25:0.077890001 26:0.10251 27:0.10486 28:0.33333001 29:0.11111 30:0.55555999 #*ELF3
246.71827983626053537591360509396 1:0 2:0 3:0.70713001 4:0.70713001 5:0 6:0 7:0 8:0 9:0 10:0.70713001 11:1.41426 12:0 13:0.70713001 14:0.70713001 15:0 16:0.70713001 17:0 18:0 19:0 20:0.70713001 21:0.056880001 22:0.058800001 23:0.04902 24:0.028720001 25:0.052859999 26:0.031690001 27:0.01491 28:0.22222 29:0.11111 30:0.66667002 #*KLF2_2
500 1:1.05553 2:0 3:0 4:0 5:0 6:1.05553 7:0 8:0 9:0 10:0.52776998 11:1.05553 12:1.05553 13:0 14:0 15:0 16:0 17:0 18:0 19:0 20:0 21:0.052779999 22:0.055819999 23:0.050319999 24:0.07745 25:0.070179999 26:0.11059 27:0.055100001 28:0.44444001 29:0.22222 30:0.33333001 #*OREF1
